-6.269439921600987731e-01
-5.111082753890190400e-01
-5.291219128727522758e+00
-8.686292554493968421e-01
1.429113772108013158e+00
3.399460539312095797e+00
-7.069768000436774669e-01
8.079409573493568919e-01
1.725867561778276493e-01
3.676733138118959410e+00
-4.002507433021477823e+00
2.248089127680077404e+00
-2.675539420680595804e+00
-1.945654015087806776e+00
-5.204071597147963413e-01
-1.264398104863167838e+00
4.782188080014049270e-01
2.041457088547520726e+00
1.266443397674916760e+00
-4.030929273110037236e+00
-2.006658711234980963e+00
-5.672437625578054643e+00
2.780255324182700605e+00
2.605867282088469850e+00
-3.067441570790957694e+00
-2.975890579024716320e+00
-8.432543926626955511e+00
-6.156591646408395846e-01
-2.058638655629791980e-01
-3.881265037387138239e-01
-3.804652449652244361e-01
-1.374700553313032980e+00
-3.352975827167296696e+00
-1.239767157370012640e+01
-6.767743534790346516e+00
-5.584104294592517448e+00
-1.814604324512875566e+00
-2.406795908846707910e+00
-5.408590340888571601e-01
-4.547589038346121271e+00
-6.429191806587151170e+00
-2.119013406053818827e+00
2.313411199929547912e+00
2.254256064769179169e+00
-3.372438045038483878e+00
-4.214964295479879830e+00
1.613122416299166861e+00
-2.484626256599189897e+00
2.603052537047170212e-01
-2.564396355110763359e+00
-1.185883689573871358e+00
1.754546775524972624e+00
-6.076409008962047054e-02
-1.232101030081155901e+00
3.653766275966795263e+00
1.331929435026371289e+00
-3.527917952141518043e+00
1.181410743461452917e+00
-5.373488084778980323e+00
9.693819595457877636e-01
-3.956857689768646491e+00
1.053800116466689696e+00
-3.080869186075048116e+00
-2.877219241550196926e+00
-1.785977787886768864e-01
1.453295488976048766e+00
1.426392868805396397e+00
8.729928863444735843e-01
-2.886339217726414663e+00
-5.659468821073227573e+00
-1.974609381967377342e+00
7.820713993170296252e-01
5.541205367610799737e-01
-5.504548451614640570e+00
-1.147760530486591879e+00
-4.172230610474740864e+00
-3.541411957527770049e+00
-3.867806366126628870e+00
-2.977137047151321436e+00
1.314924825665141572e+00
-3.838489420963697718e+00
-8.859322166274932187e+00
1.409379409581569265e+00
3.637959046485875092e+00
-5.203537712268793136e-01
-1.785627514757953227e+00
-4.610235985160430872e+00
-5.777431171293605061e+00
-1.372534105178994857e+01
1.338704342418828297e+00
-1.189448798241230731e+00
-4.839599595746573613e+00
2.549781905932819726e+00
-1.385601158105409514e+00
-1.422580036917772128e+00
-3.178943253905472388e-01
1.049103458567680613e+00
-5.082044087200632276e+00
-3.318707703283596100e+00
-4.408517013877921720e+00
-2.370349919465561506e+00
-3.938632908597598181e+00
-5.335376130536660710e+00
9.963640551081235364e-01
-3.762881120031735804e+00
6.325934381175276400e+00
-4.272740209025178260e+00
-3.432849348463777428e+00
-8.072423290811956420e-01
-1.001497636125667778e+00
5.051053325395622462e-01
-2.546209255651578296e+00
-1.517764493132775616e+00
-2.326021549389230891e+00
-8.359175140932857406e-01
-2.102183570365492304e+00
1.284045776463307087e+00
1.134350909690710285e+00
-1.758114619965529535e+00
-1.169561578049374972e+01
-7.362239051530952150e-01
-4.937826820993564958e+00
9.667738620535049066e-01
-3.674912596039067836e+00
1.722198116390329936e-01
-6.381784764576150515e-01
-3.684759817902475421e-01
-3.722827228433897240e+00
-8.560707216374521256e-01
-1.697171683682342280e+00
-7.672001712357755743e+00
-1.511833618469327067e-02
-8.538836809339465095e-01
3.992822399816913226e+00
-1.811319455345947294e+00
-2.351773200570428379e+00
-1.554429303479575086e+00
-4.725006713710977913e+00
-2.105898158172702317e+00
-6.525828998937716285e+00
-6.147468072824921137e+00
-1.953208807889563747e-01
7.787529935841428497e-01
-7.116139303770565583e+00
2.135819939056183614e+00
2.451279452527971858e-01
-6.279922268009601183e-01
-7.093138860726657668e-01
-3.697744678843416288e+00
2.269368696594269874e+00
-5.847979932956706151e-01
-2.067074409631857179e-01
-1.396537059016605298e+00
5.048432687606024594e+00
-3.558213571918487972e+00
-1.225420843537504245e+00
9.751842451574377346e-02
-1.432999828212207505e-01
6.681814920573665439e-01
-4.111178467815373772e+00
2.934305905289927630e+00
-1.518986580921268592e+00
-3.821651983686236598e+00
-1.062130111619113748e+00
7.642892829807924615e-01
3.742761105093925345e+00
1.144732012100804219e-01
-4.073017573750137288e-01
1.665563905489282570e+00
-5.208789845896755644e+00
-4.481626205064546120e+00
-6.790594028626601997e-01
-3.053735645452848146e+00
-1.264083385770852441e+00
-4.221716630854914776e-01
-6.855783894399326561e-01
-1.303837085340687318e+00
-9.968785509133624156e-01
-1.686577540359591953e+00
-6.192900317010021638e-01
9.393159284579609691e-01
-1.019812832863516050e+01
-1.020866401017026526e+00
-3.933872091380647973e+00
-1.946002237321668549e+00
-6.395288672099079363e+00
-1.186996133823473798e+00
5.044130656160607629e+00
-2.037503554500323943e+00
1.494294422668233535e+00
-4.812111996619172771e-02
-2.045365679282696192e+00
5.171865583643975306e-02
-5.614192765760526171e+00
-1.403864823651248983e+00
-2.132077278615581939e+00
-4.476667776535116161e+00
-2.089857311667276285e+00
1.445793975815530930e+00
-1.347833523945198397e+00
-2.934870621766502374e+00
7.922705327714547607e-01
3.525853751416496706e-02
-2.492822691014658254e+00
7.093754250302382047e-01
-1.097190994404770192e+00
-3.673418645168514907e+00
-4.513360586435972710e-01
-1.570846958743873589e+00
2.763898753864643121e-01
-7.081336534288023010e-01
1.832089007276512249e-01
4.261432800380664965e+00
2.251598519061382309e+00
2.624627041976653530e+00
-1.182312632080974035e+00
-4.071905764016658047e+00
1.737739807780150914e+00
-1.273744849570225268e+00
3.330016449593005134e-01
4.235505827793197398e+00
1.855353981012004549e-01
-3.285802404342299088e+00
-1.864774140844135175e+00
-1.325310048622651671e+00
1.760316150623266740e+00
-1.012757503176521467e+00
-1.820431334892450570e+00
-9.978682389457911306e-01
-5.044585275160539117e-01
-4.003792043988525506e+00
-8.672469765287529331e-01
-2.628251456759579163e+00
-1.270262583411369217e+00
-7.550492414857267853e+00
3.397383144489886320e+00
-7.527667868823485486e-01
1.084502913219827613e+00
1.059865550875652040e+00
-5.494482022828679035e+00
-6.888250476738722483e+00
-3.851552402171794398e+00
-5.385425170383776994e+00
5.142527553213699365e-01
-3.659545305695171002e-01
-3.426247761027588101e+00
-5.406175016402656297e+00
1.511703578759072686e-01
-8.151296400398960529e+00
-2.250998042622748940e+00
-7.203434163001718460e-01
-1.085308171218261286e+00
6.137832255903099554e-01
7.207942067062559133e+00
3.542579345125093759e+00
5.351616901638309720e-01
1.656239265102613878e+00
-1.562525831932237930e+00
-1.954840348354842883e+00
-1.985713143333843078e+00
-5.324979659551953848e-01
-5.313452814314480577e+00
-4.432647384261144907e+00
-1.901714442504167435e+00
1.787639588389331458e+00
