-8.823193932172976872e-01
3.317680902232282847e-01
-5.486044157601477345e-01
1.084930420123683792e+00
-9.959861216802101680e-01
3.669853086716503565e-01
-1.462899176968493364e+00
2.668372767901943110e-01
2.137617939176219561e-01
3.856959033206805998e-01
-4.542095164251087613e-01
3.646276451067824720e-01
-2.064782923180976670e+00
4.385000765058736372e-01
3.585213384850056695e-01
-3.836594163497046850e-01
8.651429387242535185e-01
-2.694418681055807951e-01
-5.727789218189031084e-01
8.919259093395743854e-01
-9.389862118813632197e-01
7.198712790846502063e-01
-3.015605048619898199e-01
-1.900056693907122174e+00
7.816297229428406101e-01
3.740945625953513431e-01
2.503043169132500800e+00
-3.734722752226746767e-01
-8.465448006575979623e-01
-3.227413836161114880e-01
5.967857593581240572e-01
9.592488848328002415e-01
9.282138644726676269e-01
-8.361571803997560615e-01
3.051215666861909481e-01
-8.797117492860280219e-01
9.455589812422693363e-02
8.816618020609379158e-02
4.574311248328510882e-01
1.923016176052407822e-01
5.517273156802030565e-01
-8.686992721463635547e-01
-1.200745364373839497e+00
3.560646567722081102e-02
5.005449386419131841e-01
-4.338252553643272003e-01
9.133391004859230389e-01
-8.749294316929865367e-01
5.143993424849153673e-01
6.486626147444969348e-01
1.627970644024535063e-01
-4.091642166070075248e+00
1.641949659164655628e+00
5.561560461011256784e-01
-8.979832051775159529e-01
1.114170775258263302e-01
1.075615293827951180e-01
8.185460509730750900e-01
3.916193275720523115e-01
8.381060728189140829e-02
8.301588392588419296e-01
-1.560400403403464642e+00
7.355659875053588426e-02
-5.928159408581030743e-01
-2.947767386375789833e+00
-7.295393742070237497e-01
4.023305287967593458e-01
8.600135875452501466e-01
2.410980530543405997e+00
2.831865084624329842e-01
2.798914105168560651e-01
-5.307130571513605233e-01
3.913457348042432837e-01
-1.211706714490850656e+00
-1.505804292997657612e+00
7.156858460059654092e-01
8.213713476138773117e-02
-4.245307215631504150e-01
8.220046517683186060e-01
-3.269425646902013316e-01
2.400502252816444582e+00
1.511409312029236007e+00
-3.507193644372786911e-01
9.025647147601247866e-01
1.666636215821365452e+00
-4.903392436650053643e-01
-2.523160311313905169e+00
1.829753803651426480e+00
-1.996326258483941407e+00
-2.158126281147579206e+00
-6.536540535211038394e-02
-6.288603184479162334e-01
3.193359337228096173e+00
-3.621664962587161085e-01
1.978811747941542354e-01
-4.999726132179096449e-01
-3.845136179916297525e-01
-8.728606981308555390e-01
-6.837689208787227635e-01
-3.785780474805697793e-01
3.562564134157598095e-01
3.232374106850263829e+00
-1.127143302611297582e-01
4.713854515904596365e-01
1.661517423777006286e+00
-1.747985851786905354e+00
-7.690644228251088954e-01
-5.335250204046906308e-01
-1.642766347867365972e-01
4.817013331856543346e-01
6.541782474185486862e-02
1.036719364275555888e+00
6.826433174257379166e-02
-1.587543179545162886e+00
2.248288631794486125e-01
-7.765635237066188523e-01
3.334976848386612680e-01
-4.243962400930433310e-01
9.104913970684778146e-01
1.641618392047898389e+00
2.595366972013666729e+00
-2.626471334353778220e-01
-2.382615596254755719e-01
5.161248128782532918e-01
9.443986155691250772e-01
2.509750749705776940e-01
-2.936448061376611962e-01
-1.218053991913288225e-01
-6.794459876740037707e-01
-1.604711025007776737e-01
-1.245329538911487566e+00
-3.918020457303397763e-01
-5.310209020676549541e-01
-5.379852271587294288e-01
-3.097856001426390726e+00
2.147154903271040194e-01
-8.591130840995457874e-01
6.183897613204782928e-01
1.089722407971058127e+00
-3.995860215442958996e-01
-3.729449143394657273e+00
-7.868842699025824228e-01
8.717548456438650728e-01
-4.416001377779927850e-01
-2.413729137612180775e+00
2.440140091118643273e-01
-5.914879076773715827e-01
6.261547916810008552e-01
-2.630067669250000240e-01
-8.565441034512985552e-02
6.922163114599699796e-03
1.480828493597952988e+00
-2.842654582534785979e-01
-1.651717953012319384e+00
2.886400777305371257e-01
-1.264777453198633550e+00
9.140265887199034989e-01
3.098477495218829869e-01
-1.399689898211080585e-01
3.892715726704247814e-01
-1.818684004219160100e+00
-5.564941270279852858e-01
-1.303326081474781351e+00
8.004503322520721831e-01
-4.879414979994668444e-01
-2.156888591408335998e+00
1.504661544161228548e+00
-4.639071695012297880e-01
3.023845580018446055e-01
-6.449910515879362372e-01
-7.368811992226682595e-01
-4.270088226006853449e-01
7.257971294153395814e-01
1.943045702550513010e+00
-7.227255432353684172e-01
6.169343982693458184e-01
-4.069310148098594482e+00
2.108219629544194618e-02
-2.683160842357092957e-01
-2.200903910799731911e-01
-1.174193855604213299e+00
7.665898246602893540e-01
3.191742763369450064e-01
-1.083993148009970486e+00
-2.175584742479462541e+00
-3.414040238320881215e-02
-5.512093792574990214e-01
4.198742927738887687e-01
1.009135806389032108e-01
-1.041105789372932300e+00
9.250274044317463584e-01
6.789869325757960095e-01
3.590860323610414184e-01
7.909161783472724583e-01
1.974797941568714243e+00
1.297569707589105503e+00
-1.356427058387150164e-01
-1.137144444428578316e+00
-5.611241685649210886e-01
-8.661043936314876124e-01
2.337636429302897279e-01
-5.995411001841814969e-01
3.219974597543879824e-01
9.748460232615345777e-01
-8.097617739793633307e-02
-2.465348310940800758e+00
2.325647032697896188e-01
-1.555322060908866266e+00
1.063643615309173007e-01
-5.092167729815615385e-01
-8.687837410881138478e-01
-3.908958164676623603e-02
-3.174035964332593274e-01
4.922608989750085207e-01
-2.133240282806104560e+00
-4.562283856395791815e-01
-7.472659316760288384e-01
-3.798083526974690427e-01
-2.984068591432889050e-01
-1.057110501888004928e+00
-8.585991758884701230e-01
1.110523644388166087e-01
3.006545813938170220e+00
-4.471349820860501367e+00
2.172924754305016304e+00
-4.067192773011114593e-01
-2.280248200278337745e+00
1.940583410090995553e+00
1.660278017844345921e+00
-3.613502600186042080e-01
5.223640405907996609e-01
-1.023792509608711931e-02
-4.998538100608045931e-01
-4.765124563723861506e-01
5.504441700256228476e-01
8.715339830101418439e-01
-7.263122951638278924e-01
1.099997555846815356e+00
6.313908709147737497e-01
-9.300645756420655719e-01
-7.498510390571286877e-01
-8.238489407780305029e-01
5.829578522545713071e-01
-5.845569107998935809e-01
7.360129835918213237e-01
9.593947501704258585e-02
1.122299446387915900e+00
-3.917079076636580393e-01
-6.542389671361019676e-01
1.285995925938768103e+00
8.761723327235400038e-01
-1.031474200916086215e+00
-4.166455315682253691e-01
7.165732431538944791e-01
-1.538730486574320988e+00
-3.981758678597103196e-01
1.642295373170885586e+00
-8.986670059769761298e-01
1.215681095788304633e-01
-3.094631550339098647e-01
-7.608056295693057525e-01
2.106418825716088739e-01
-1.497163717244602843e-01
7.939273051686810412e-01
-9.227659107710035613e-01
