-2.157627663893440406e+00
-1.444839435006006978e+00
-5.551041080444274911e+00
7.629652892736360492e+00
-3.018529513651704299e+00
-2.049627237998510321e+00
-3.727873210259984305e+00
-3.882234988767016226e+00
-1.722990477277551946e+00
-2.458473825423148185e+00
1.095623046029349013e+00
-1.447310582689466329e+00
2.376058524887773693e+00
-6.539143281176242439e+00
1.175652870798326433e+01
-3.073635677777033504e-01
9.450962022547748642e-01
-1.614944426199998340e+00
-9.326078126757999520e-01
-6.389423569700819705e+00
1.261877933004808661e+00
6.543763514745077003e+00
-4.031397345983042335e+00
-6.150472302067052865e+00
-2.681109331022478948e+00
-3.597347025577296797e+00
-1.256981804736124753e+00
1.259441194035425227e+01
-1.176422919089454400e+00
-5.305074098182388731e+00
-1.359825399103683718e+00
-8.336433037935375712e-02
-3.024691073432892452e+00
9.637730251290141936e-01
-3.256078864036674236e+00
-1.110695793406918952e+01
-3.766670595563969215e+00
-1.778218563424388554e+00
-1.260910176773745484e+01
4.794182921602716974e+00
-3.754447522220617284e+00
-9.130841290679752476e+00
-3.731040247609275884e+00
1.187810747674738154e+00
-2.810241120726712616e+00
-1.464141182644360661e+00
2.743270548826185262e+00
9.250213636650265192e-01
5.530925892123905729e-02
2.906717243230250602e+00
-6.241592666671597733e+00
-7.025977640605184149e+00
-2.701515145535030804e+00
4.198076813402987106e+00
1.696628261195323173e+00
-7.444792778121052557e+00
-7.542039913296551212e+00
-8.074477040715133391e-01
-1.423616386939868761e+01
1.521431134983863398e+00
-4.738537421065977640e+00
-7.834208114978444826e+00
-9.061693979324616066e+00
-1.440508122297127658e+00
-1.312930356429969514e+01
-7.164556263059548513e+00
4.116024494327737315e+00
-2.974791627989532561e-01
-4.916876755782050523e+00
5.280320605934049283e+00
-1.583983451979931178e-02
-1.953352400144205969e+00
-4.991824337687098989e+00
3.763697833722055464e+00
1.625989437128156245e+00
1.859568034687593574e+00
-5.306491238960276746e+00
-7.679592140648789922e+00
1.776577650873762959e-01
2.434479260914252929e+00
-5.046028854917695483e+00
-2.032049671080333297e+00
-2.569304984531300295e+00
3.454064764759744666e+00
-7.776616794197539484e+00
-6.751050758207465918e+00
3.053406924163036607e+00
-1.343597146318713742e+00
-3.302438322628971967e+00
-1.109363794966563344e+00
-1.997013488492627831e+00
-6.952157959423858280e+00
-1.270207309833386944e+01
-5.916997372275258016e+00
-8.731862996257326870e-01
-1.410275291824730770e+00
-9.430647585770056684e-01
1.008169943492965182e+00
5.201718247256864602e-01
-4.674772256836515538e+00
-6.630220739236544425e+00
-1.158622895454132440e+00
-9.002939916488635674e+00
-3.133058944931643719e+00
-5.784476414184813287e+00
-1.236286789570610001e+00
-4.381173259540890541e+00
4.888857891191072724e+00
-1.369726256571563638e+01
3.504810615669964324e-01
4.283973331054827582e+00
-7.273155488708496819e+00
6.563637597365124421e+00
7.717100446724850515e-01
-1.291083647995598493e+00
-4.935152226276973586e+00
-3.138597281805912242e+00
6.499761301640504918e+00
-3.607901490242788167e+00
-8.916339108048950024e+00
-6.721611411793935176e-01
-3.096406734201631039e+00
-3.350775937260181969e+00
8.021746880727956608e+00
-4.786945743488969285e+00
-1.241407405707295553e+01
5.410635465362558350e+00
2.519794727176623894e+00
-2.707213643431442662e+00
1.335131126783331013e+00
8.910265470453563319e-01
-8.047648972037929838e+00
4.423316118297928590e-01
-9.714252296247153140e+00
-2.430036246172881498e+00
-3.773087256927254884e+00
4.035550058400422913e+00
2.858414910097810679e+00
-6.176495336614119758e+00
-6.136530966938442688e-01
2.229028679066398677e+00
-2.704936899995074029e-01
1.040404429796511376e+00
-1.058230511441897903e+01
-6.073713250954329013e-01
7.231297829664646848e+00
-3.625979581656037176e+00
-9.527472904560814193e-01
-2.237833284849959636e-01
1.527863783492382055e+00
-3.866090003455943780e+00
-2.040952614110969954e+00
-7.311577110906620547e+00
-7.621825996738114561e+00
5.204056928745975696e+00
1.266497561070325517e+00
-1.261106907966206503e+00
-1.250288407241267663e+00
-1.074678310368980316e+00
-6.427130019786042148e+00
-4.855446224548007450e+00
3.404204391715756728e+00
-5.471703941735055921e+00
-3.821117159505358796e+00
6.046259021195089511e-01
-7.945438912599909642e+00
4.728274803359270528e+00
-6.495646597564460611e-01
1.109174084158878859e+00
-1.728103926591305406e+00
-6.061074921865697185e+00
3.450066252140174594e+00
-1.532734317605040353e+01
1.014748285253447735e+00
7.822835084218530355e+00
-1.337595377713438616e+00
-1.549146583845515401e-01
-2.298276155936901599e+00
-1.223549602756746069e+00
-1.746684274435210460e+00
-6.059021860448275731e+00
-6.917124295349031726e+00
4.045482037387298391e+00
-1.225286124985282044e+01
3.458630747604865885e+00
2.016474722153555277e+00
-3.803864256387621268e+00
-9.774284317673052058e-01
2.911707176777073247e+00
-4.057263986883047124e+00
-6.223776589009208493e+00
-4.446210868648523551e+00
3.930650951979523522e-01
-2.267720758875110487e+00
-1.447138282339710258e-01
-1.505878332686811705e+00
-2.436699191442019519e+00
-5.390163096363228767e+00
3.612614112242326314e+00
5.088264697839615103e-01
9.163849422738512551e-01
3.602136657949640774e+00
-2.956528799291695542e+00
-3.361453834199211954e+00
1.425734819220550564e+00
3.046587421993343092e+00
-3.785796088986682406e+00
1.186703794265306655e+01
-1.645584094008726073e+00
2.646653091020896853e-01
4.757167259088552314e+00
1.182220876786169272e+00
9.802204688533326937e-01
2.122334045263037261e+00
1.135847160151226376e+01
-3.681769124597023435e+00
1.382310139315281017e+00
2.484619752141849602e+00
-1.228152265251751141e+00
6.526225489398211899e-01
-2.473907592569583702e+00
6.903808664438001230e+00
-2.481191522973281494e+00
-1.119060344395859108e-01
-1.010461747507255836e+01
-3.153255360516135308e+00
-2.872845015984208050e+00
9.270548187648715022e-01
1.248026630610303389e+00
-3.546111069308893970e+00
-6.968723956888201343e+00
-1.630017569834397939e+00
8.940463175680209984e-01
-6.986961936314780353e+00
-8.757888160878890105e+00
-9.328549038352638156e-01
5.940590312839519882e-01
5.292007737448573224e+00
-6.867114636481822521e-01
1.112206257065233295e-01
6.305609531348867591e+00
4.695099677171204355e+00
3.328679340356204719e+00
4.651214241659964443e+00
-9.008183636434516917e-01
3.627142828576837452e+00
8.065663973036817369e-01
-5.061172390129248910e+00
-6.700786797136518480e+00
4.059524221815828504e+00
-1.301054642688940177e+01
2.324202407270798965e-01
-3.112035083962581439e+00
1.242051275060696014e+00
3.420357678756364539e+00
-1.230239047546054287e+01
-6.649092533212009215e+00
-3.473884003243558061e-01
-1.156224492267885751e+01
-2.895713157894750367e+00
-1.202348902639389294e+01
2.744607798843313518e+00
1.323243127468731739e-01
3.414225339762516853e+00
4.063363561585632278e-01
