-5.060173893163653069e-01
-1.551287025408446318e+00
3.805995685525511263e+00
-6.938317832439532040e+00
-1.620191271345627682e+00
4.447910791262902563e+00
-4.047546743098648925e+00
8.594433793443410075e-01
-4.189296199254564534e+00
-4.548711610620380874e+00
-3.895422487202456763e-01
-4.039063451759024481e+00
1.679735695938575857e+00
-5.963822211240088933e+00
-3.691566093308481733e+00
-4.193882336990363058e+00
-7.447643760221478448e-02
-3.431360188570128589e+00
1.167063651002239411e+00
7.257672993410309026e-01
6.629693821540825205e-01
4.598006611146091771e+00
-1.601424462598423526e+00
-4.603145782577724887e+00
-6.839868916927873688e-01
4.737808700265679462e+00
4.519127014671263431e+00
1.091067320098966453e+00
2.609981471032797096e+00
-1.438983036577985430e+00
1.763144796799672287e+00
2.358306933607802747e-01
-3.062236189453869883e+00
-6.629537361422515040e-01
-1.607970463679998963e+00
-6.623759223210401892e+00
3.817812600368305720e+00
4.462301046948280003e+00
-1.484763926271265522e+00
1.945029675240549594e+00
-1.682532918638990793e+00
1.684286318284831552e+00
5.611163973684039519e+00
-2.529862824398659615e+00
-6.130238729864290192e-01
-7.909186757728787764e-01
-2.402304064072996681e+00
7.426162302480361355e-01
1.593402192469650736e+01
-1.227997447780523999e+00
1.918180225923772797e+00
-3.365719456676533605e-01
-1.852137061494279147e+00
2.123470741530641970e-02
-1.359356519697656029e+00
-3.071370776323974816e+00
9.004711617713849758e-01
4.675216953269589748e-01
-3.061056041447943521e+00
6.770644000627572545e+00
3.652470739203222738e+00
5.244892535421248336e-01
5.818253167416100879e-01
-2.981313569958508491e+00
3.631938610327731354e+00
1.201616004912770652e+00
-6.705362722537113740e+00
-1.798485797758500926e+00
-1.226501217111505726e+00
-4.906956063219510611e+00
2.105193071322204457e+00
6.760153278483880257e-01
-6.874785050217413485e-02
-8.037798531868350915e-02
-2.530665687983404410e+00
5.430815383594289614e-01
1.355306768184774135e+00
-2.015833086736047886e+00
-2.125783223122678756e+00
3.377769113126180001e-01
-2.168583809160284481e+00
-1.835276902730641924e+00
-5.257068898740430152e-01
2.205551938054380656e+00
1.809804808032779100e+00
-1.301181681048917849e+00
5.138017739184027599e-01
2.919446100897224117e+00
6.233916484018532600e+00
-1.222381490019166739e+00
6.295414884785410781e-01
-6.882228688374425474e+00
3.126753595198793700e+00
2.929300759522555087e+00
-1.615317314640455137e+00
4.446592062475827056e+00
-5.064201391744548530e+00
-4.131337480492320857e+00
-5.083037980993627691e-01
-3.167954951943640296e+00
2.172789619318958643e+00
-5.082125511484749225e+00
-1.170725424719128105e+00
1.964800021444460310e+00
7.447754429584229285e+00
-3.732329396430827950e-01
-2.334088986558449097e+00
-3.658921909008098439e+00
1.311064502007401877e+00
-1.470126639969386195e+00
-2.036095683416026425e+00
4.661580428652423613e+00
-1.514403565504527371e+00
-2.976645911893813778e-01
1.036530721235018881e-01
2.199073004060155601e+00
2.627850709669681262e+00
2.984195103245675718e+00
-3.638851180420375364e+00
-3.915530728719572640e+00
1.771145920701414078e-01
-5.065306109225313769e-01
-3.385799133143287953e-01
4.611116451041173958e-01
-1.733764639776501637e+00
-3.316726386486102962e-01
3.213272798298864252e+00
8.809270056134238525e-01
4.312719871961259721e-01
-2.884075611377087123e-01
2.343668395415836159e+00
2.357058082442564206e+00
-7.635830700383952063e-01
-1.806302689159114516e+00
3.147040248292027886e-01
1.516138353105948244e+00
8.563713399362697487e+00
-4.753266257385980964e+00
-6.270135376925431103e+00
5.097160599036244299e+00
-1.252820966864669927e+00
-2.320345651699522005e+00
2.154694671836583808e+00
-1.118116336734031213e+00
-9.159492526086547848e-01
-1.867757156610277525e+00
1.061687267286066882e+00
3.152866745955551941e+00
-1.466181141842464619e+00
2.183637700031351159e-01
1.592730968325950514e-01
-7.463355218091383136e-02
2.422472737954441402e-01
-3.954055623128651220e+00
4.615161178916395102e+00
-2.140440626292485327e+00
9.595643360923141074e+00
1.575605843242030790e+00
-4.898667667811514304e-01
-3.160894156722675596e+00
2.258600137597156776e-02
-4.636049332088262531e+00
-2.070685669704993792e+00
-1.166716855412222920e+00
-2.801029250778200641e+00
2.217205865647601026e+00
3.406457680571312707e+00
-4.675215465712962981e-01
-6.451139837278949685e-01
2.622692631691553977e+00
2.608632075328936040e+00
-1.922905431087733374e+00
2.295813415095588894e+00
-1.280020701449656961e+00
-3.562023877338907907e-01
-1.857679086235253241e+00
-3.825056668287171835e+00
-2.538524401120619833e-01
4.493582332794770373e+00
-1.471014398949286983e+00
-3.323890254126145472e+00
1.069348682599315037e+00
-4.479568851509090899e-01
-7.395348418330283113e-03
2.329873385959668308e+00
3.277099599213460834e+00
-1.232903053500248869e-01
-5.637222992795567933e+00
-6.517202212441753240e+00
-9.445965355317564871e-02
-3.586811204611261017e-01
6.543494952671574660e-02
1.384319681846155614e+00
4.053514690237236096e+00
-2.617790579782823368e+00
-1.357566609725604057e+00
-2.311237901509684889e+00
3.279564465721077626e-01
1.010476003055780669e+00
-9.927694946362836115e-01
1.633646775291592856e-01
2.438579479801770589e+00
-1.931415118888986093e+00
-2.958522264329731755e+00
1.287049344485172053e+00
3.255466751870747633e+00
-6.667224488015568440e-01
1.791386457438996604e+00
-1.267678755256198331e+00
-1.352034547278401888e+00
-1.953458995686008670e+00
-3.811202320343675787e+00
-5.476907132190175886e+00
5.292920059758692286e-01
6.571798352536617926e+00
1.423518426684867055e+00
2.918237703031342889e+00
7.241961979523977577e-01
2.120512875226191696e+00
1.343894264612405021e+00
-3.664457405728302586e+00
7.520023017247623454e-01
8.097587397750249494e+00
-1.458915008830385052e+00
3.137487664120043540e+00
1.302679493852875403e+00
-4.895104977386065315e+00
1.979745717199376642e+00
7.015366877676657564e-01
-2.639932890914478580e+00
1.121717863377433400e+00
-4.187190397729921187e+00
-4.336124107977040176e-01
-2.035749604209434516e+00
9.256576381142905818e-01
-3.840668219987701804e+00
7.895635354498145020e-01
4.468352725142343829e+00
6.582258582682898318e-01
4.945264957138860495e+00
-8.975185500039986053e-01
-1.285152927780971233e+00
-1.053185128274965132e+00
-2.561022917687016509e+00
3.338161861709104450e+00
-2.123247778578377876e+00
4.641442531879528488e+00
1.349174541395205651e+00
2.208931367431224757e+00
5.825103428968982922e-01
8.284101971170748646e-01
-2.022544138483519216e+00
1.146848097922758214e+00
5.139027571749481993e+00
-5.902063562580392997e+00
2.592233901371867155e+00
7.667749106336302134e+00
-1.611183502661557743e+00
-1.120919721772823952e+00
3.272706832067347804e+00
1.867405066109453449e+00
-2.587235437766530310e+00
-2.804108751471281025e+00
1.042820103100420948e+00
-4.553781890775155938e-01
