-7.945446224514258304e+00
-1.133363596417547114e+01
-2.577913351932949126e+00
-8.074954390093969536e+00
-8.618787325701058322e+00
-2.695495046240882875e+00
4.760069632560345099e+00
-1.389616118201151274e+00
3.285644613668530223e-01
1.768359769444753038e+00
-6.914410719542190442e+00
-1.155397909116251576e+01
-2.424601926640052696e+00
4.407060683478184693e+00
4.156857960143467423e+00
-1.368922400569062958e+01
4.430692561500352511e+00
-3.703354512998633830e+00
1.245751018695997914e+01
1.173439446440723621e+00
-3.748122576978669684e+00
-1.459560472964862932e+01
-2.943461343145446385e+00
2.131160539189870029e+00
-2.948782403248405792e+00
-3.885289036651001116e+00
-8.954226213132892909e+00
-7.747211260794408361e+00
3.815793529965158193e+00
2.815974585440653710e-01
-7.024952840337190807e+00
-5.018771973968637390e+00
-6.625374740502888216e+00
1.298074271773073551e+00
-6.922073318176157564e+00
-1.623433085892391325e+00
-9.918770127587446250e-01
1.320535714439831310e+00
-4.699122130391947039e+00
-2.983369369501389201e+00
2.439786710607664943e+00
-4.227809468964532691e+00
7.104699231492321854e-01
4.744737787464816670e+00
-1.780741003009599410e+01
-7.588879631707379225e-02
-4.514647639242919119e+00
-8.413202846707616089e+00
3.599713618710281615e+00
-1.265378848987617655e+00
-4.844153054251213675e+00
-3.460199704638585505e+00
3.187828262586229755e+00
6.021104812148505125e+00
-2.628591867212385580e+00
-6.406557776318615449e-01
-9.489880201558904105e+00
5.940645184533327239e+00
-7.501045523820389915e-01
-3.341502800561796382e-01
-8.513711506548347074e+00
1.022240917172466013e+01
-4.936822324574767329e+00
-1.701567750066701024e+01
-7.775720847492309851e+00
-1.092607483796785672e+01
-1.606799430247717098e+00
-3.703473985328813445e+00
-1.092884227663698837e+01
5.853914355736959951e-01
5.370757634850862328e-01
8.119544981440961706e+00
-3.017474707907808806e+00
-1.233445843450707624e+00
1.110930077867151144e+00
-1.712570967659550192e-01
-4.807658329437421330e+00
-7.537219173969655017e+00
2.125168490037860902e+00
5.732954266174960622e+00
2.028015741021549356e-01
-2.735677145030543045e+00
2.240867920213852837e+00
1.163801179949790665e+01
-1.518105912557123904e+00
-1.405590256295161877e+00
-4.303273401425684597e+00
-1.641520682305406043e+00
-9.178520822182235861e+00
-5.013703047805968538e+00
-1.557764093498911606e+01
-4.395663250312674464e+00
-2.284882933395425475e+00
6.894120397041993975e-01
-5.223355801316208691e+00
7.909029911747135211e-01
6.814838284361928622e+00
-1.922014626797133374e+01
-4.146013831566724761e+00
-3.635558368097872028e-01
-4.572360964185595122e+00
-1.776943983039013908e+00
-6.452804007571778300e+00
-1.402328376904149687e+00
-1.240483490423023971e+00
-5.826669606929806733e+00
-3.942013579971635373e+00
-6.410756157137877054e+00
1.147216422144831771e+00
2.145153558572039820e+00
-8.987038126588082321e+00
-9.443402431477609937e-02
-3.138515581871751614e+00
-3.677097021305254732e+00
5.096624906398165678e+00
-4.896304763380932457e+00
-5.766771533776287484e+00
-2.016050230100837393e+00
3.337667710449966130e+00
-2.704668780914512460e+00
1.961870215951742047e-01
-3.494169609435354484e+00
3.722383150069202173e+00
-5.808667760098575883e-01
4.444426075185468505e+00
1.009766903683396055e+00
-3.015671861428649514e+00
-6.767598035175620197e+00
-2.669262814308060783e+00
-6.266637673872084147e-01
-6.177178583501854447e+00
4.000913861739483934e+00
8.174834863336286617e+00
1.053426236058476517e+00
-1.090713663547499479e+01
-2.834319745121094414e-01
2.013262645343907753e+00
-8.560445328737682047e+00
-1.208454797692615657e+01
-3.086516666063265468e+00
-3.305588661784717885e+00
-1.692458099142589267e+00
-4.025794669498292677e+00
-3.080424050298213423e+00
-2.268757023513375159e+00
2.010587571590479961e+00
-8.015170050396227097e+00
-1.781015839420092561e-01
-1.547216907065077640e-01
5.222675094255156303e+00
-1.035954740258240747e+00
-8.693488941859994767e+00
-4.633787827891752364e+00
-1.563065185596523854e-01
-5.251230795359409953e+00
-6.967463181631895708e+00
-6.774491880923198650e+00
7.686111644970146095e-01
-3.274909651608453043e-01
-2.160956584127227131e+00
2.760834921672580933e+00
2.859667990094746592e+00
-2.013043726637858910e+00
-6.012329592795037092e-01
2.166989314788622778e+00
-1.789077736010951547e+00
-9.763205031179168714e+00
-2.012186029573440393e+00
1.359774638387508894e+00
-2.147825616956706440e+01
-1.024138792803371523e+01
-4.740745193531273216e+00
4.161191457594871856e+00
-9.155026574854165489e+00
2.914372205786366798e+00
-3.568362252035923721e-01
8.536583852956786345e+00
-7.677318828207384982e+00
-5.331427070469483276e-01
2.995434558501260280e+00
4.231301109671171901e+00
-7.344725968897234392e-01
-2.382513294565861806e+00
-1.196653331546885823e+01
-1.615020141093356454e+00
-2.104695829121837747e+01
-3.856328358049152527e+00
-1.581150745095071031e+00
1.258809011148884771e+00
-1.074334790635509052e+01
-5.597916336394856529e+00
-1.681771506664053106e+01
-1.338179563544341644e-01
-8.340914715073607155e+00
-5.144784574936170252e+00
3.536497633850562705e-01
-1.550661980606958368e+00
-4.017305984362415927e+00
3.655080540953234980e+00
-1.033630744217432174e+00
-8.522829993438417517e+00
2.366542070905168327e+00
-5.043046070125089209e+00
7.535521563840705817e+00
1.954343179943518249e+00
-1.614794051828422727e+00
1.891312089709713318e+00
-5.189360371257716764e+00
5.289063930901502175e+00
-2.603146326153747303e+00
-6.441896674550237734e+00
1.479544406784817134e+00
-9.312185768301407762e+00
1.310080707936702282e+00
2.847599721346430357e+00
-2.762632777818518903e-02
6.439188336289198844e-01
-3.217891472312861101e+00
-4.757631921555637966e+00
1.535917911464197649e+00
6.595623960976602085e+00
-7.252505946442012075e+00
-4.568040609723762913e+00
-1.621585615822140447e+00
-5.390451501719978111e+00
-1.557679799704851042e+00
-7.010797610799091029e-03
-5.730448354684711809e-01
3.516606891763098819e-01
-1.416223290893730669e+00
3.364725148393725718e-01
-7.759473003425453319e-01
-3.247216162849237975e+00
4.437063801621101256e+00
-1.783693861314215034e+00
-1.210765095156193105e+01
1.823236701163572615e+00
-5.086608659456257620e+00
-7.529579039905669902e+00
-1.639146340016324421e+00
2.082032001001213883e-01
3.571579016773254622e+00
-1.440680010806157796e+01
-3.121134260677232319e+00
4.966388319170575549e+00
3.896719542661231106e-01
-7.447410435421748964e+00
4.373420228495879414e+00
1.691349500549806262e+00
-1.000401419593346475e+01
2.668109058267816636e+00
5.349877316905764957e+00
-1.601227733133323561e+00
3.331991526258949676e+00
-3.679833346118015047e+00
1.539270313531541756e+00
-5.642633700699933641e+00
8.077249146274374514e-01
-1.380786428971963575e+00
6.606796689643909204e+00
7.309186863022539171e+00
-9.438769452604271137e+00
-9.068854412369997675e+00
-2.459042635008381161e+00
-4.327519469214070824e+00
